<?xml version="1.0"?>
<opencv_storage>
<stage12>
  <maxWeakCount>5</maxWeakCount>
  <stageThreshold>-4.0661704540252686e-01</stageThreshold>
  <weakClassifiers>
    <_>
      <internalNodes>
        0 -1 3267955 -6.8714180961251259e-03</internalNodes>
      <leafValues>
        9.2307692766189575e-01 -3.3333334326744080e-01</leafValues></_>
    <_>
      <internalNodes>
        0 -1 4885975 5.3092930465936661e-03</internalNodes>
      <leafValues>
        3.9766097068786621e-01 -9.0987563133239746e-01</leafValues></_>
    <_>
      <internalNodes>
        0 -1 1148 1.0175521485507488e-02</internalNodes>
      <leafValues>
        -5.4136431217193604e-01 5.9977179765701294e-01</leafValues></_>
    <_>
      <internalNodes>
        0 -1 5567478 1.3685823651030660e-03</internalNodes>
      <leafValues>
        -4.9817222356796265e-01 7.3086088895797729e-01</leafValues></_>
    <_>
      <internalNodes>
        0 -1 6314058 1.1757624452002347e-04</internalNodes>
      <leafValues>
        -4.0524068474769592e-01 7.3499232530593872e-01</leafValues></_></weakClassifiers></stage12>
</opencv_storage>
