<?xml version="1.0"?>
<opencv_storage>
<cascade>
  <stageType>BOOST</stageType>
  <featureType>HAAR</featureType>
  <height>40</height>
  <width>80</width>
  <stageParams>
    <boostType>GAB</boostType>
    <minHitRate>9.9900001287460327e-01</minHitRate>
    <maxFalseAlarm>5.0000000000000000e-01</maxFalseAlarm>
    <weightTrimRate>9.4999999999999996e-01</weightTrimRate>
    <maxDepth>1</maxDepth>
    <maxWeakCount>100</maxWeakCount></stageParams>
  <featureParams>
    <maxCatCount>0</maxCatCount>
    <featSize>1</featSize>
    <mode>ALL</mode></featureParams>
  <stageNum>15</stageNum>
  <stages>
    <!-- stage 0 -->
    <_>
      <maxWeakCount>3</maxWeakCount>
      <stageThreshold>-1.4045345783233643e+00</stageThreshold>
      <weakClassifiers>
        <_>
          <internalNodes>
            0 -1 11 -2.1345420181751251e-01</internalNodes>
          <leafValues>
            8.3561640977859497e-01 -9.5806026458740234e-01</leafValues></_>
        <_>
          <internalNodes>
            0 -1 53 -2.6963688433170319e-03</internalNodes>
          <leafValues>
            7.9222345352172852e-01 -8.6180531978607178e-01</leafValues></_>
        <_>
          <internalNodes>
            0 -1 48 -2.7867488097399473e-04</internalNodes>
          <leafValues>
            4.1533100605010986e-01 -8.9900028705596924e-01</leafValues></_></weakClassifiers></_>
    <!-- stage 1 -->
    <_>
      <maxWeakCount>3</maxWeakCount>
      <stageThreshold>-1.5188955068588257e+00</stageThreshold>
      <weakClassifiers>
        <_>
          <internalNodes>
            0 -1 10 -4.7749990224838257e-01</internalNodes>
          <leafValues>
            4.0000000596046448e-01 -9.3459779024124146e-01</leafValues></_>
        <_>
          <internalNodes>
            0 -1 31 -2.9519775882363319e-02</internalNodes>
          <leafValues>
            4.8224863409996033e-01 -8.3018839359283447e-01</leafValues></_>
        <_>
          <internalNodes>
            0 -1 41 2.7314925100654364e-03</internalNodes>
          <leafValues>
            -9.7645223140716553e-01 2.4589066207408905e-01</leafValues></_></weakClassifiers></_>
    <!-- stage 2 -->
    <_>
      <maxWeakCount>4</maxWeakCount>
      <stageThreshold>-1.9947535991668701e+00</stageThreshold>
      <weakClassifiers>
        <_>
          <internalNodes>
            0 -1 5 -1.5210983157157898e-01</internalNodes>
          <leafValues>
            6.0000002384185791e-01 -9.1891890764236450e-01</leafValues></_>
        <_>
          <internalNodes>
            0 -1 42 -9.6533668693155050e-04</internalNodes>
          <leafValues>
            7.3218101263046265e-01 -7.3839437961578369e-01</leafValues></_>
        <_>
          <internalNodes>
            0 -1 8 -8.4498494863510132e-02</internalNodes>
          <leafValues>
            5.9655749797821045e-01 -7.2383445501327515e-01</leafValues></_>
        <_>
          <internalNodes>
            0 -1 22 -1.1882926337420940e-02</internalNodes>
          <leafValues>
            3.8639408349990845e-01 -7.6278787851333618e-01</leafValues></_></weakClassifiers></_>
    <!-- stage 3 -->
    <_>
      <maxWeakCount>4</maxWeakCount>
      <stageThreshold>-1.8912050724029541e+00</stageThreshold>
      <weakClassifiers>
        <_>
          <internalNodes>
            0 -1 0 -4.3293637037277222e-01</internalNodes>
          <leafValues>
            4.1818180680274963e-01 -9.2227977514266968e-01</leafValues></_>
        <_>
          <internalNodes>
            0 -1 39 -6.3051925972104073e-03</internalNodes>
          <leafValues>
            8.5006713867187500e-01 -7.1048057079315186e-01</leafValues></_>
        <_>
          <internalNodes>
            0 -1 28 -1.7621375620365143e-02</internalNodes>
          <leafValues>
            5.3953570127487183e-01 -6.6862285137176514e-01</leafValues></_>
        <_>
          <internalNodes>
            0 -1 58 -3.0633539427071810e-04</internalNodes>
          <leafValues>
            4.1017815470695496e-01 -7.6329594850540161e-01</leafValues></_></weakClassifiers></_>
    <!-- stage 4 -->
    <_>
      <maxWeakCount>4</maxWeakCount>
      <stageThreshold>-1.7451896667480469e+00</stageThreshold>
      <weakClassifiers>
        <_>
          <internalNodes>
            0 -1 61 3.2310955226421356e-02</internalNodes>
          <leafValues>
            -9.1709846258163452e-01 2.7272728085517883e-01</leafValues></_>
        <_>
          <internalNodes>
            0 -1 62 2.7304654940962791e-02</internalNodes>
          <leafValues>
            -7.8982025384902954e-01 2.6482981443405151e-01</leafValues></_>
        <_>
          <internalNodes>
            0 -1 56 6.9765676744282246e-04</internalNodes>
          <leafValues>
            -4.7374847531318665e-01 6.8050920963287354e-01</leafValues></_>
        <_>
          <internalNodes>
            0 -1 36 -5.1824739202857018e-03</internalNodes>
          <leafValues>
            4.5196658372879028e-01 -6.1917257308959961e-01</leafValues></_></weakClassifiers></_>
    <!-- stage 5 -->
    <_>
      <maxWeakCount>5</maxWeakCount>
      <stageThreshold>-1.7874363660812378e+00</stageThreshold>
      <weakClassifiers>
        <_>
          <internalNodes>
            0 -1 6 -1.2825360894203186e-01</internalNodes>
          <leafValues>
            3.1914892792701721e-01 -9.1237115859985352e-01</leafValues></_>
        <_>
          <internalNodes>
            0 -1 51 1.2953514233231544e-03</internalNodes>
          <leafValues>
            -6.9412833452224731e-01 6.3816440105438232e-01</leafValues></_>
        <_>
          <internalNodes>
            0 -1 14 -5.2116256207227707e-02</internalNodes>
          <leafValues>
            4.9604359269142151e-01 -7.0688861608505249e-01</leafValues></_>
        <_>
          <internalNodes>
            0 -1 26 -1.1271326802670956e-03</internalNodes>
          <leafValues>
            -9.8447740077972412e-01 2.4227683246135712e-01</leafValues></_>
        <_>
          <internalNodes>
            0 -1 25 7.4615248013287783e-04</internalNodes>
          <leafValues>
            -8.5865056514739990e-01 2.8367489576339722e-01</leafValues></_></weakClassifiers></_>
    <!-- stage 6 -->
    <_>
      <maxWeakCount>3</maxWeakCount>
      <stageThreshold>-1.3865034580230713e+00</stageThreshold>
      <weakClassifiers>
        <_>
          <internalNodes>
            0 -1 7 -2.8526771068572998e-01</internalNodes>
          <leafValues>
            1. -8.9753317832946777e-01</leafValues></_>
        <_>
          <internalNodes>
            0 -1 43 -9.1853213962167501e-04</internalNodes>
          <leafValues>
            5.1020610332489014e-01 -7.1590191125869751e-01</leafValues></_>
        <_>
          <internalNodes>
            0 -1 30 1.4739742036908865e-03</internalNodes>
          <leafValues>
            2.2693163156509399e-01 -1.</leafValues></_></weakClassifiers></_>
    <!-- stage 7 -->
    <_>
      <maxWeakCount>4</maxWeakCount>
      <stageThreshold>-2.0274009704589844e+00</stageThreshold>
      <weakClassifiers>
        <_>
          <internalNodes>
            0 -1 40 -8.6484402418136597e-03</internalNodes>
          <leafValues>
            5.8823531866073608e-01 -9.0798723697662354e-01</leafValues></_>
        <_>
          <internalNodes>
            0 -1 52 4.5707845129072666e-04</internalNodes>
          <leafValues>
            -8.4704345464706421e-01 1.5477281808853149e-01</leafValues></_>
        <_>
          <internalNodes>
            0 -1 20 -1.1973259970545769e-02</internalNodes>
          <leafValues>
            3.7738591432571411e-01 -6.4569610357284546e-01</leafValues></_>
        <_>
          <internalNodes>
            0 -1 47 -8.4565649740397930e-04</internalNodes>
          <leafValues>
            3.7332588434219360e-01 -7.5394910573959351e-01</leafValues></_></weakClassifiers></_>
    <!-- stage 8 -->
    <_>
      <maxWeakCount>4</maxWeakCount>
      <stageThreshold>-1.9352471828460693e+00</stageThreshold>
      <weakClassifiers>
        <_>
          <internalNodes>
            0 -1 9 -4.9275121092796326e-01</internalNodes>
          <leafValues>
            7.4193549156188965e-01 -9.0816324949264526e-01</leafValues></_>
        <_>
          <internalNodes>
            0 -1 18 -2.1073091030120850e-01</internalNodes>
          <leafValues>
            2.0117501914501190e-01 -7.8766429424285889e-01</leafValues></_>
        <_>
          <internalNodes>
            0 -1 38 -3.2993552740663290e-03</internalNodes>
          <leafValues>
            -8.9333617687225342e-01 2.0033966004848480e-01</leafValues></_>
        <_>
          <internalNodes>
            0 -1 44 -3.6313189775682986e-04</internalNodes>
          <leafValues>
            7.4834167957305908e-01 -4.3975934386253357e-01</leafValues></_></weakClassifiers></_>
    <!-- stage 9 -->
    <_>
      <maxWeakCount>5</maxWeakCount>
      <stageThreshold>-1.9324007034301758e+00</stageThreshold>
      <weakClassifiers>
        <_>
          <internalNodes>
            0 -1 12 -3.4940842539072037e-02</internalNodes>
          <leafValues>
            4.2222222685813904e-01 -9.1377091407775879e-01</leafValues></_>
        <_>
          <internalNodes>
            0 -1 15 -7.2555057704448700e-02</internalNodes>
          <leafValues>
            1.6995862126350403e-01 -7.7973544597625732e-01</leafValues></_>
        <_>
          <internalNodes>
            0 -1 54 3.5413508303463459e-03</internalNodes>
          <leafValues>
            -5.1440322399139404e-01 5.5283445119857788e-01</leafValues></_>
        <_>
          <internalNodes>
            0 -1 23 -2.1677656332030892e-04</internalNodes>
          <leafValues>
            2.8214022517204285e-01 -8.8767880201339722e-01</leafValues></_>
        <_>
          <internalNodes>
            0 -1 50 6.8172972532920539e-05</internalNodes>
          <leafValues>
            2.1349360048770905e-01 -9.6343791484832764e-01</leafValues></_></weakClassifiers></_>
    <!-- stage 10 -->
    <_>
      <maxWeakCount>5</maxWeakCount>
      <stageThreshold>-1.8636019229888916e+00</stageThreshold>
      <weakClassifiers>
        <_>
          <internalNodes>
            0 -1 13 -4.1546359658241272e-01</internalNodes>
          <leafValues>
            8.0000001192092896e-01 -8.9740341901779175e-01</leafValues></_>
        <_>
          <internalNodes>
            0 -1 1 -2.9969909787178040e-01</internalNodes>
          <leafValues>
            2.0607095956802368e-01 -7.4108403921127319e-01</leafValues></_>
        <_>
          <internalNodes>
            0 -1 27 -9.7127904882654548e-04</internalNodes>
          <leafValues>
            4.3217384815216064e-01 -5.8145284652709961e-01</leafValues></_>
        <_>
          <internalNodes>
            0 -1 37 1.6946175310295075e-04</internalNodes>
          <leafValues>
            2.6849880814552307e-01 -9.1222888231277466e-01</leafValues></_>
        <_>
          <internalNodes>
            0 -1 46 7.0503927418030798e-05</internalNodes>
          <leafValues>
            2.6805332303047180e-01 -8.5931539535522461e-01</leafValues></_></weakClassifiers></_>
    <!-- stage 11 -->
    <_>
      <maxWeakCount>5</maxWeakCount>
      <stageThreshold>-1.8330000638961792e+00</stageThreshold>
      <weakClassifiers>
        <_>
          <internalNodes>
            0 -1 63 -1.2955494225025177e-02</internalNodes>
          <leafValues>
            7.7777779102325439e-01 -8.9500313997268677e-01</leafValues></_>
        <_>
          <internalNodes>
            0 -1 16 -1.5575002133846283e-01</internalNodes>
          <leafValues>
            4.6069234609603882e-02 -8.4263151884078979e-01</leafValues></_>
        <_>
          <internalNodes>
            0 -1 59 -9.9900411441922188e-04</internalNodes>
          <leafValues>
            4.4036254286766052e-01 -5.8803814649581909e-01</leafValues></_>
        <_>
          <internalNodes>
            0 -1 2 -1.8299922521691769e-04</internalNodes>
          <leafValues>
            -7.9075634479522705e-01 2.7581208944320679e-01</leafValues></_>
        <_>
          <internalNodes>
            0 -1 35 4.4253893429413438e-04</internalNodes>
          <leafValues>
            3.6087176203727722e-01 -6.3367229700088501e-01</leafValues></_></weakClassifiers></_>
    <!-- stage 12 -->
    <_>
      <maxWeakCount>5</maxWeakCount>
      <stageThreshold>-1.8586579561233521e+00</stageThreshold>
      <weakClassifiers>
        <_>
          <internalNodes>
            0 -1 3 -4.4683709740638733e-01</internalNodes>
          <leafValues>
            1. -8.9274448156356812e-01</leafValues></_>
        <_>
          <internalNodes>
            0 -1 55 -1.5867725014686584e-02</internalNodes>
          <leafValues>
            3.4555673599243164e-01 -6.7522811889648438e-01</leafValues></_>
        <_>
          <internalNodes>
            0 -1 45 7.0945604238659143e-04</internalNodes>
          <leafValues>
            -8.3461141586303711e-01 2.3200860619544983e-01</leafValues></_>
        <_>
          <internalNodes>
            0 -1 32 7.5305397622287273e-03</internalNodes>
          <leafValues>
            1.9084715843200684e-01 -9.9662476778030396e-01</leafValues></_>
        <_>
          <internalNodes>
            0 -1 4 1.2324408453423530e-04</internalNodes>
          <leafValues>
            3.5307890176773071e-01 -6.2479627132415771e-01</leafValues></_></weakClassifiers></_>
    <!-- stage 13 -->
    <_>
      <maxWeakCount>5</maxWeakCount>
      <stageThreshold>-1.7014391422271729e+00</stageThreshold>
      <weakClassifiers>
        <_>
          <internalNodes>
            0 -1 57 -2.1201421041041613e-03</internalNodes>
          <leafValues>
            8.0000001192092896e-01 -8.9740341901779175e-01</leafValues></_>
        <_>
          <internalNodes>
            0 -1 24 -2.5721009820699692e-02</internalNodes>
          <leafValues>
            1.1212807148694992e-01 -7.8414362668991089e-01</leafValues></_>
        <_>
          <internalNodes>
            0 -1 60 6.0023268451914191e-04</internalNodes>
          <leafValues>
            -5.1664662361145020e-01 4.9955901503562927e-01</leafValues></_>
        <_>
          <internalNodes>
            0 -1 34 3.9693024009466171e-03</internalNodes>
          <leafValues>
            2.2625058889389038e-01 -9.6973353624343872e-01</leafValues></_>
        <_>
          <internalNodes>
            0 -1 49 -1.4038176741451025e-03</internalNodes>
          <leafValues>
            2.7050399780273438e-01 -8.4022271633148193e-01</leafValues></_></weakClassifiers></_>
    <!-- stage 14 -->
    <_>
      <maxWeakCount>5</maxWeakCount>
      <stageThreshold>-1.6891287565231323e+00</stageThreshold>
      <weakClassifiers>
        <_>
          <internalNodes>
            0 -1 29 3.4529343247413635e-01</internalNodes>
          <leafValues>
            -8.9987325668334961e-01 9.0476191043853760e-01</leafValues></_>
        <_>
          <internalNodes>
            0 -1 17 -1.0771896690130234e-02</internalNodes>
          <leafValues>
            2.1563374996185303e-01 -7.0813709497451782e-01</leafValues></_>
        <_>
          <internalNodes>
            0 -1 33 4.6907220967113972e-03</internalNodes>
          <leafValues>
            2.4302847683429718e-01 -8.1182861328125000e-01</leafValues></_>
        <_>
          <internalNodes>
            0 -1 19 -4.0583603084087372e-02</internalNodes>
          <leafValues>
            2.9678252339363098e-01 -6.7656433582305908e-01</leafValues></_>
        <_>
          <internalNodes>
            0 -1 21 -1.1293333955109119e-03</internalNodes>
          <leafValues>
            4.3450379371643066e-01 -5.7135337591171265e-01</leafValues></_></weakClassifiers></_></stages>
  <features>
    <_>
      <rects>
        <_>
          0 10 80 25 -1.</_>
        <_>
          20 10 40 25 2.</_></rects>
      <tilted>0</tilted></_>
    <_>
      <rects>
        <_>
          0 19 69 21 -1.</_>
        <_>
          23 26 23 7 9.</_></rects>
      <tilted>0</tilted></_>
    <_>
      <rects>
        <_>
          0 39 18 1 -1.</_>
        <_>
          9 39 9 1 2.</_></rects>
      <tilted>0</tilted></_>
    <_>
      <rects>
        <_>
          1 11 76 19 -1.</_>
        <_>
          20 11 38 19 2.</_></rects>
      <tilted>0</tilted></_>
    <_>
      <rects>
        <_>
          1 39 14 1 -1.</_>
        <_>
          8 39 7 1 2.</_></rects>
      <tilted>0</tilted></_>
    <_>
      <rects>
        <_>
          2 21 76 8 -1.</_>
        <_>
          21 21 38 8 2.</_></rects>
      <tilted>0</tilted></_>
    <_>
      <rects>
        <_>
          2 23 76 6 -1.</_>
        <_>
          21 23 38 6 2.</_></rects>
      <tilted>0</tilted></_>
    <_>
      <rects>
        <_>
          3 8 68 15 -1.</_>
        <_>
          20 8 34 15 2.</_></rects>
      <tilted>0</tilted></_>
    <_>
      <rects>
        <_>
          3 17 76 14 -1.</_>
        <_>
          22 17 38 14 2.</_></rects>
      <tilted>0</tilted></_>
    <_>
      <rects>
        <_>
          4 7 72 28 -1.</_>
        <_>
          22 7 36 28 2.</_></rects>
      <tilted>0</tilted></_>
    <_>
      <rects>
        <_>
          4 18 75 21 -1.</_>
        <_>
          29 25 25 7 9.</_></rects>
      <tilted>0</tilted></_>
    <_>
      <rects>
        <_>
          5 7 64 33 -1.</_>
        <_>
          21 7 32 33 2.</_></rects>
      <tilted>0</tilted></_>
    <_>
      <rects>
        <_>
          5 12 68 2 -1.</_>
        <_>
          22 12 34 2 2.</_></rects>
      <tilted>0</tilted></_>
    <_>
      <rects>
        <_>
          6 8 68 21 -1.</_>
        <_>
          23 8 34 21 2.</_></rects>
      <tilted>0</tilted></_>
    <_>
      <rects>
        <_>
          6 12 28 22 -1.</_>
        <_>
          20 12 14 22 2.</_></rects>
      <tilted>0</tilted></_>
    <_>
      <rects>
        <_>
          8 2 26 29 -1.</_>
        <_>
          21 2 13 29 2.</_></rects>
      <tilted>0</tilted></_>
    <_>
      <rects>
        <_>
          11 1 56 38 -1.</_>
        <_>
          25 1 28 38 2.</_></rects>
      <tilted>0</tilted></_>
    <_>
      <rects>
        <_>
          11 20 16 4 -1.</_>
        <_>
          19 20 8 4 2.</_></rects>
      <tilted>0</tilted></_>
    <_>
      <rects>
        <_>
          14 1 57 21 -1.</_>
        <_>
          33 8 19 7 9.</_></rects>
      <tilted>0</tilted></_>
    <_>
      <rects>
        <_>
          18 3 45 32 -1.</_>
        <_>
          33 3 15 32 3.</_></rects>
      <tilted>0</tilted></_>
    <_>
      <rects>
        <_>
          18 9 30 5 -1.</_>
        <_>
          33 9 15 5 2.</_></rects>
      <tilted>0</tilted></_>
    <_>
      <rects>
        <_>
          24 16 8 16 -1.</_>
        <_>
          24 16 4 8 2.</_>
        <_>
          28 24 4 8 2.</_></rects>
      <tilted>0</tilted></_>
    <_>
      <rects>
        <_>
          27 16 20 16 -1.</_>
        <_>
          27 24 20 8 2.</_></rects>
      <tilted>0</tilted></_>
    <_>
      <rects>
        <_>
          28 19 18 10 -1.</_>
        <_>
          34 19 6 10 3.</_></rects>
      <tilted>0</tilted></_>
    <_>
      <rects>
        <_>
          30 1 18 17 -1.</_>
        <_>
          36 7 6 17 3.</_></rects>
      <tilted>1</tilted></_>
    <_>
      <rects>
        <_>
          31 14 12 12 -1.</_>
        <_>
          35 18 4 4 9.</_></rects>
      <tilted>0</tilted></_>
    <_>
      <rects>
        <_>
          31 16 16 6 -1.</_>
        <_>
          39 16 8 6 2.</_></rects>
      <tilted>0</tilted></_>
    <_>
      <rects>
        <_>
          31 20 6 3 -1.</_>
        <_>
          33 20 2 3 3.</_></rects>
      <tilted>0</tilted></_>
    <_>
      <rects>
        <_>
          32 0 18 12 -1.</_>
        <_>
          32 6 18 6 2.</_></rects>
      <tilted>0</tilted></_>
    <_>
      <rects>
        <_>
          32 7 46 25 -1.</_>
        <_>
          55 7 23 25 2.</_></rects>
      <tilted>0</tilted></_>
    <_>
      <rects>
        <_>
          32 17 12 4 -1.</_>
        <_>
          38 17 6 4 2.</_></rects>
      <tilted>0</tilted></_>
    <_>
      <rects>
        <_>
          33 1 18 18 -1.</_>
        <_>
          33 7 18 6 3.</_></rects>
      <tilted>0</tilted></_>
    <_>
      <rects>
        <_>
          34 6 11 26 -1.</_>
        <_>
          34 19 11 13 2.</_></rects>
      <tilted>0</tilted></_>
    <_>
      <rects>
        <_>
          34 10 14 19 -1.</_>
        <_>
          41 10 7 19 2.</_></rects>
      <tilted>0</tilted></_>
    <_>
      <rects>
        <_>
          34 13 8 5 -1.</_>
        <_>
          34 13 4 5 2.</_></rects>
      <tilted>1</tilted></_>
    <_>
      <rects>
        <_>
          34 16 10 6 -1.</_>
        <_>
          34 18 10 2 3.</_></rects>
      <tilted>0</tilted></_>
    <_>
      <rects>
        <_>
          35 8 22 10 -1.</_>
        <_>
          35 8 11 5 2.</_>
        <_>
          46 13 11 5 2.</_></rects>
      <tilted>0</tilted></_>
    <_>
      <rects>
        <_>
          35 9 6 3 -1.</_>
        <_>
          37 10 2 1 9.</_></rects>
      <tilted>0</tilted></_>
    <_>
      <rects>
        <_>
          35 17 12 6 -1.</_>
        <_>
          39 19 4 2 9.</_></rects>
      <tilted>0</tilted></_>
    <_>
      <rects>
        <_>
          35 18 6 4 -1.</_>
        <_>
          37 18 2 4 3.</_></rects>
      <tilted>0</tilted></_>
    <_>
      <rects>
        <_>
          35 18 6 5 -1.</_>
        <_>
          37 18 2 5 3.</_></rects>
      <tilted>0</tilted></_>
    <_>
      <rects>
        <_>
          36 12 12 16 -1.</_>
        <_>
          36 16 12 8 2.</_></rects>
      <tilted>0</tilted></_>
    <_>
      <rects>
        <_>
          36 19 4 2 -1.</_>
        <_>
          37 19 2 2 2.</_></rects>
      <tilted>0</tilted></_>
    <_>
      <rects>
        <_>
          36 19 2 4 -1.</_>
        <_>
          37 19 1 4 2.</_></rects>
      <tilted>0</tilted></_>
    <_>
      <rects>
        <_>
          36 21 3 1 -1.</_>
        <_>
          37 21 1 1 3.</_></rects>
      <tilted>0</tilted></_>
    <_>
      <rects>
        <_>
          37 8 5 18 -1.</_>
        <_>
          37 17 5 9 2.</_></rects>
      <tilted>0</tilted></_>
    <_>
      <rects>
        <_>
          38 10 5 2 -1.</_>
        <_>
          38 11 5 1 2.</_></rects>
      <tilted>0</tilted></_>
    <_>
      <rects>
        <_>
          38 18 3 6 -1.</_>
        <_>
          39 20 1 2 9.</_></rects>
      <tilted>0</tilted></_>
    <_>
      <rects>
        <_>
          38 19 3 3 -1.</_>
        <_>
          39 19 1 3 3.</_></rects>
      <tilted>0</tilted></_>
    <_>
      <rects>
        <_>
          39 8 8 6 -1.</_>
        <_>
          39 8 4 6 2.</_></rects>
      <tilted>1</tilted></_>
    <_>
      <rects>
        <_>
          39 10 2 2 -1.</_>
        <_>
          40 10 1 2 2.</_></rects>
      <tilted>0</tilted></_>
    <_>
      <rects>
        <_>
          39 19 3 2 -1.</_>
        <_>
          40 19 1 2 3.</_></rects>
      <tilted>0</tilted></_>
    <_>
      <rects>
        <_>
          40 18 4 3 -1.</_>
        <_>
          41 18 2 3 2.</_></rects>
      <tilted>0</tilted></_>
    <_>
      <rects>
        <_>
          40 19 6 2 -1.</_>
        <_>
          42 19 2 2 3.</_></rects>
      <tilted>0</tilted></_>
    <_>
      <rects>
        <_>
          42 17 6 6 -1.</_>
        <_>
          44 17 2 6 3.</_></rects>
      <tilted>0</tilted></_>
    <_>
      <rects>
        <_>
          44 0 8 12 -1.</_>
        <_>
          44 6 8 6 2.</_></rects>
      <tilted>0</tilted></_>
    <_>
      <rects>
        <_>
          44 19 2 2 -1.</_>
        <_>
          45 19 1 2 2.</_></rects>
      <tilted>0</tilted></_>
    <_>
      <rects>
        <_>
          44 19 4 3 -1.</_>
        <_>
          45 19 2 3 2.</_></rects>
      <tilted>0</tilted></_>
    <_>
      <rects>
        <_>
          45 17 2 4 -1.</_>
        <_>
          44 18 2 2 2.</_></rects>
      <tilted>1</tilted></_>
    <_>
      <rects>
        <_>
          46 17 4 7 -1.</_>
        <_>
          47 17 2 7 2.</_></rects>
      <tilted>0</tilted></_>
    <_>
      <rects>
        <_>
          48 17 1 3 -1.</_>
        <_>
          47 18 1 1 3.</_></rects>
      <tilted>1</tilted></_>
    <_>
      <rects>
        <_>
          50 0 12 8 -1.</_>
        <_>
          50 0 12 4 2.</_></rects>
      <tilted>1</tilted></_>
    <_>
      <rects>
        <_>
          54 5 14 28 -1.</_>
        <_>
          61 5 7 28 2.</_></rects>
      <tilted>0</tilted></_>
    <_>
      <rects>
        <_>
          57 17 4 12 -1.</_>
        <_>
          57 17 2 12 2.</_></rects>
      <tilted>1</tilted></_></features></cascade>
</opencv_storage>
