<?xml version="1.0"?>
<opencv_storage>
<cascade>
  <stageType>BOOST</stageType>
  <featureType>HAAR</featureType>
  <height>40</height>
  <width>80</width>
  <stageParams>
    <boostType>GAB</boostType>
    <minHitRate>9.9900001287460327e-01</minHitRate>
    <maxFalseAlarm>5.0000000000000000e-01</maxFalseAlarm>
    <weightTrimRate>9.4999999999999996e-01</weightTrimRate>
    <maxDepth>1</maxDepth>
    <maxWeakCount>100</maxWeakCount></stageParams>
  <featureParams>
    <maxCatCount>0</maxCatCount>
    <featSize>1</featSize>
    <mode>ALL</mode></featureParams>
  <stageNum>8</stageNum>
  <stages>
    <!-- stage 0 -->
    <_>
      <maxWeakCount>3</maxWeakCount>
      <stageThreshold>-1.4045345783233643e+00</stageThreshold>
      <weakClassifiers>
        <_>
          <internalNodes>
            0 -1 6 -2.1345420181751251e-01</internalNodes>
          <leafValues>
            8.3561640977859497e-01 -9.5806026458740234e-01</leafValues></_>
        <_>
          <internalNodes>
            0 -1 25 -2.6963688433170319e-03</internalNodes>
          <leafValues>
            7.9222345352172852e-01 -8.6180531978607178e-01</leafValues></_>
        <_>
          <internalNodes>
            0 -1 22 -2.7867488097399473e-04</internalNodes>
          <leafValues>
            4.1533100605010986e-01 -8.9900028705596924e-01</leafValues></_></weakClassifiers></_>
    <!-- stage 1 -->
    <_>
      <maxWeakCount>3</maxWeakCount>
      <stageThreshold>-1.5188955068588257e+00</stageThreshold>
      <weakClassifiers>
        <_>
          <internalNodes>
            0 -1 5 -4.7749990224838257e-01</internalNodes>
          <leafValues>
            4.0000000596046448e-01 -9.3459779024124146e-01</leafValues></_>
        <_>
          <internalNodes>
            0 -1 14 -2.9519775882363319e-02</internalNodes>
          <leafValues>
            4.8224863409996033e-01 -8.3018839359283447e-01</leafValues></_>
        <_>
          <internalNodes>
            0 -1 18 2.7314925100654364e-03</internalNodes>
          <leafValues>
            -9.7645223140716553e-01 2.4589066207408905e-01</leafValues></_></weakClassifiers></_>
    <!-- stage 2 -->
    <_>
      <maxWeakCount>4</maxWeakCount>
      <stageThreshold>-1.9947535991668701e+00</stageThreshold>
      <weakClassifiers>
        <_>
          <internalNodes>
            0 -1 1 -1.5210983157157898e-01</internalNodes>
          <leafValues>
            6.0000002384185791e-01 -9.1891890764236450e-01</leafValues></_>
        <_>
          <internalNodes>
            0 -1 19 -9.6533668693155050e-04</internalNodes>
          <leafValues>
            7.3218101263046265e-01 -7.3839437961578369e-01</leafValues></_>
        <_>
          <internalNodes>
            0 -1 4 -8.4498494863510132e-02</internalNodes>
          <leafValues>
            5.9655749797821045e-01 -7.2383445501327515e-01</leafValues></_>
        <_>
          <internalNodes>
            0 -1 9 -1.1882926337420940e-02</internalNodes>
          <leafValues>
            3.8639408349990845e-01 -7.6278787851333618e-01</leafValues></_></weakClassifiers></_>
    <!-- stage 3 -->
    <_>
      <maxWeakCount>4</maxWeakCount>
      <stageThreshold>-1.8912050724029541e+00</stageThreshold>
      <weakClassifiers>
        <_>
          <internalNodes>
            0 -1 0 -4.3293637037277222e-01</internalNodes>
          <leafValues>
            4.1818180680274963e-01 -9.2227977514266968e-01</leafValues></_>
        <_>
          <internalNodes>
            0 -1 16 -6.3051925972104073e-03</internalNodes>
          <leafValues>
            8.5006713867187500e-01 -7.1048057079315186e-01</leafValues></_>
        <_>
          <internalNodes>
            0 -1 12 -1.7621375620365143e-02</internalNodes>
          <leafValues>
            5.3953570127487183e-01 -6.6862285137176514e-01</leafValues></_>
        <_>
          <internalNodes>
            0 -1 27 -3.0633539427071810e-04</internalNodes>
          <leafValues>
            4.1017815470695496e-01 -7.6329594850540161e-01</leafValues></_></weakClassifiers></_>
    <!-- stage 4 -->
    <_>
      <maxWeakCount>4</maxWeakCount>
      <stageThreshold>-1.7451896667480469e+00</stageThreshold>
      <weakClassifiers>
        <_>
          <internalNodes>
            0 -1 28 3.2310955226421356e-02</internalNodes>
          <leafValues>
            -9.1709846258163452e-01 2.7272728085517883e-01</leafValues></_>
        <_>
          <internalNodes>
            0 -1 29 2.7304654940962791e-02</internalNodes>
          <leafValues>
            -7.8982025384902954e-01 2.6482981443405151e-01</leafValues></_>
        <_>
          <internalNodes>
            0 -1 26 6.9765676744282246e-04</internalNodes>
          <leafValues>
            -4.7374847531318665e-01 6.8050920963287354e-01</leafValues></_>
        <_>
          <internalNodes>
            0 -1 15 -5.1824739202857018e-03</internalNodes>
          <leafValues>
            4.5196658372879028e-01 -6.1917257308959961e-01</leafValues></_></weakClassifiers></_>
    <!-- stage 5 -->
    <_>
      <maxWeakCount>5</maxWeakCount>
      <stageThreshold>-1.7874363660812378e+00</stageThreshold>
      <weakClassifiers>
        <_>
          <internalNodes>
            0 -1 2 -1.2825360894203186e-01</internalNodes>
          <leafValues>
            3.1914892792701721e-01 -9.1237115859985352e-01</leafValues></_>
        <_>
          <internalNodes>
            0 -1 23 1.2953514233231544e-03</internalNodes>
          <leafValues>
            -6.9412833452224731e-01 6.3816440105438232e-01</leafValues></_>
        <_>
          <internalNodes>
            0 -1 7 -5.2116256207227707e-02</internalNodes>
          <leafValues>
            4.9604359269142151e-01 -7.0688861608505249e-01</leafValues></_>
        <_>
          <internalNodes>
            0 -1 11 -1.1271326802670956e-03</internalNodes>
          <leafValues>
            -9.8447740077972412e-01 2.4227683246135712e-01</leafValues></_>
        <_>
          <internalNodes>
            0 -1 10 7.4615248013287783e-04</internalNodes>
          <leafValues>
            -8.5865056514739990e-01 2.8367489576339722e-01</leafValues></_></weakClassifiers></_>
    <!-- stage 6 -->
    <_>
      <maxWeakCount>3</maxWeakCount>
      <stageThreshold>-1.3865034580230713e+00</stageThreshold>
      <weakClassifiers>
        <_>
          <internalNodes>
            0 -1 3 -2.8526771068572998e-01</internalNodes>
          <leafValues>
            1. -8.9753317832946777e-01</leafValues></_>
        <_>
          <internalNodes>
            0 -1 20 -9.1853213962167501e-04</internalNodes>
          <leafValues>
            5.1020610332489014e-01 -7.1590191125869751e-01</leafValues></_>
        <_>
          <internalNodes>
            0 -1 13 1.4739742036908865e-03</internalNodes>
          <leafValues>
            2.2693163156509399e-01 -1.</leafValues></_></weakClassifiers></_>
    <!-- stage 7 -->
    <_>
      <maxWeakCount>4</maxWeakCount>
      <stageThreshold>-2.0274009704589844e+00</stageThreshold>
      <weakClassifiers>
        <_>
          <internalNodes>
            0 -1 17 -8.6484402418136597e-03</internalNodes>
          <leafValues>
            5.8823531866073608e-01 -9.0798723697662354e-01</leafValues></_>
        <_>
          <internalNodes>
            0 -1 24 4.5707845129072666e-04</internalNodes>
          <leafValues>
            -8.4704345464706421e-01 1.5477281808853149e-01</leafValues></_>
        <_>
          <internalNodes>
            0 -1 8 -1.1973259970545769e-02</internalNodes>
          <leafValues>
            3.7738591432571411e-01 -6.4569610357284546e-01</leafValues></_>
        <_>
          <internalNodes>
            0 -1 21 -8.4565649740397930e-04</internalNodes>
          <leafValues>
            3.7332588434219360e-01 -7.5394910573959351e-01</leafValues></_></weakClassifiers></_></stages>
  <features>
    <_>
      <rects>
        <_>
          0 10 80 25 -1.</_>
        <_>
          20 10 40 25 2.</_></rects>
      <tilted>0</tilted></_>
    <_>
      <rects>
        <_>
          2 21 76 8 -1.</_>
        <_>
          21 21 38 8 2.</_></rects>
      <tilted>0</tilted></_>
    <_>
      <rects>
        <_>
          2 23 76 6 -1.</_>
        <_>
          21 23 38 6 2.</_></rects>
      <tilted>0</tilted></_>
    <_>
      <rects>
        <_>
          3 8 68 15 -1.</_>
        <_>
          20 8 34 15 2.</_></rects>
      <tilted>0</tilted></_>
    <_>
      <rects>
        <_>
          3 17 76 14 -1.</_>
        <_>
          22 17 38 14 2.</_></rects>
      <tilted>0</tilted></_>
    <_>
      <rects>
        <_>
          4 18 75 21 -1.</_>
        <_>
          29 25 25 7 9.</_></rects>
      <tilted>0</tilted></_>
    <_>
      <rects>
        <_>
          5 7 64 33 -1.</_>
        <_>
          21 7 32 33 2.</_></rects>
      <tilted>0</tilted></_>
    <_>
      <rects>
        <_>
          6 12 28 22 -1.</_>
        <_>
          20 12 14 22 2.</_></rects>
      <tilted>0</tilted></_>
    <_>
      <rects>
        <_>
          18 9 30 5 -1.</_>
        <_>
          33 9 15 5 2.</_></rects>
      <tilted>0</tilted></_>
    <_>
      <rects>
        <_>
          27 16 20 16 -1.</_>
        <_>
          27 24 20 8 2.</_></rects>
      <tilted>0</tilted></_>
    <_>
      <rects>
        <_>
          31 14 12 12 -1.</_>
        <_>
          35 18 4 4 9.</_></rects>
      <tilted>0</tilted></_>
    <_>
      <rects>
        <_>
          31 16 16 6 -1.</_>
        <_>
          39 16 8 6 2.</_></rects>
      <tilted>0</tilted></_>
    <_>
      <rects>
        <_>
          32 0 18 12 -1.</_>
        <_>
          32 6 18 6 2.</_></rects>
      <tilted>0</tilted></_>
    <_>
      <rects>
        <_>
          32 17 12 4 -1.</_>
        <_>
          38 17 6 4 2.</_></rects>
      <tilted>0</tilted></_>
    <_>
      <rects>
        <_>
          33 1 18 18 -1.</_>
        <_>
          33 7 18 6 3.</_></rects>
      <tilted>0</tilted></_>
    <_>
      <rects>
        <_>
          35 8 22 10 -1.</_>
        <_>
          35 8 11 5 2.</_>
        <_>
          46 13 11 5 2.</_></rects>
      <tilted>0</tilted></_>
    <_>
      <rects>
        <_>
          35 18 6 4 -1.</_>
        <_>
          37 18 2 4 3.</_></rects>
      <tilted>0</tilted></_>
    <_>
      <rects>
        <_>
          35 18 6 5 -1.</_>
        <_>
          37 18 2 5 3.</_></rects>
      <tilted>0</tilted></_>
    <_>
      <rects>
        <_>
          36 12 12 16 -1.</_>
        <_>
          36 16 12 8 2.</_></rects>
      <tilted>0</tilted></_>
    <_>
      <rects>
        <_>
          36 19 4 2 -1.</_>
        <_>
          37 19 2 2 2.</_></rects>
      <tilted>0</tilted></_>
    <_>
      <rects>
        <_>
          36 19 2 4 -1.</_>
        <_>
          37 19 1 4 2.</_></rects>
      <tilted>0</tilted></_>
    <_>
      <rects>
        <_>
          38 18 3 6 -1.</_>
        <_>
          39 20 1 2 9.</_></rects>
      <tilted>0</tilted></_>
    <_>
      <rects>
        <_>
          38 19 3 3 -1.</_>
        <_>
          39 19 1 3 3.</_></rects>
      <tilted>0</tilted></_>
    <_>
      <rects>
        <_>
          39 19 3 2 -1.</_>
        <_>
          40 19 1 2 3.</_></rects>
      <tilted>0</tilted></_>
    <_>
      <rects>
        <_>
          40 18 4 3 -1.</_>
        <_>
          41 18 2 3 2.</_></rects>
      <tilted>0</tilted></_>
    <_>
      <rects>
        <_>
          40 19 6 2 -1.</_>
        <_>
          42 19 2 2 3.</_></rects>
      <tilted>0</tilted></_>
    <_>
      <rects>
        <_>
          44 19 2 2 -1.</_>
        <_>
          45 19 1 2 2.</_></rects>
      <tilted>0</tilted></_>
    <_>
      <rects>
        <_>
          45 17 2 4 -1.</_>
        <_>
          44 18 2 2 2.</_></rects>
      <tilted>1</tilted></_>
    <_>
      <rects>
        <_>
          50 0 12 8 -1.</_>
        <_>
          50 0 12 4 2.</_></rects>
      <tilted>1</tilted></_>
    <_>
      <rects>
        <_>
          54 5 14 28 -1.</_>
        <_>
          61 5 7 28 2.</_></rects>
      <tilted>0</tilted></_></features></cascade>
</opencv_storage>
