<?xml version="1.0"?>
<opencv_storage>
<stage13>
  <maxWeakCount>5</maxWeakCount>
  <stageThreshold>-1.7014391422271729e+00</stageThreshold>
  <weakClassifiers>
    <_>
      <internalNodes>
        0 -1 5958579 -2.1201421041041613e-03</internalNodes>
      <leafValues>
        8.0000001192092896e-01 -8.9740341901779175e-01</leafValues></_>
    <_>
      <internalNodes>
        0 -1 4374899 -2.5721009820699692e-02</internalNodes>
      <leafValues>
        1.1212807148694992e-01 -7.8414362668991089e-01</leafValues></_>
    <_>
      <internalNodes>
        0 -1 6309605 6.0023268451914191e-04</internalNodes>
      <leafValues>
        -5.1664662361145020e-01 4.9955901503562927e-01</leafValues></_>
    <_>
      <internalNodes>
        0 -1 4906935 3.9693024009466171e-03</internalNodes>
      <leafValues>
        2.2625058889389038e-01 -9.6973353624343872e-01</leafValues></_>
    <_>
      <internalNodes>
        0 -1 5430714 -1.4038176741451025e-03</internalNodes>
      <leafValues>
        2.7050399780273438e-01 -8.4022271633148193e-01</leafValues></_></weakClassifiers></stage13>
</opencv_storage>
