<?xml version="1.0"?>
<opencv_storage>
<stage12>
  <maxWeakCount>5</maxWeakCount>
  <stageThreshold>-1.8586579561233521e+00</stageThreshold>
  <weakClassifiers>
    <_>
      <internalNodes>
        0 -1 239486 -4.4683709740638733e-01</internalNodes>
      <leafValues>
        1. -8.9274448156356812e-01</leafValues></_>
    <_>
      <internalNodes>
        0 -1 5889405 -1.5867725014686584e-02</internalNodes>
      <leafValues>
        3.4555673599243164e-01 -6.7522811889648438e-01</leafValues></_>
    <_>
      <internalNodes>
        0 -1 5219149 7.0945604238659143e-04</internalNodes>
      <leafValues>
        -8.3461141586303711e-01 2.3200860619544983e-01</leafValues></_>
    <_>
      <internalNodes>
        0 -1 4877476 7.5305397622287273e-03</internalNodes>
      <leafValues>
        1.9084715843200684e-01 -9.9662476778030396e-01</leafValues></_>
    <_>
      <internalNodes>
        0 -1 320411 1.2324408453423530e-04</internalNodes>
      <leafValues>
        3.5307890176773071e-01 -6.2479627132415771e-01</leafValues></_></weakClassifiers></stage12>
</opencv_storage>
