<?xml version="1.0"?>
<opencv_storage>
<stage5>
  <maxWeakCount>5</maxWeakCount>
  <stageThreshold>-1.7874363660812378e+00</stageThreshold>
  <weakClassifiers>
    <_>
      <internalNodes>
        0 -1 453059 -1.2825360894203186e-01</internalNodes>
      <leafValues>
        3.1914892792701721e-01 -9.1237115859985352e-01</leafValues></_>
    <_>
      <internalNodes>
        0 -1 5467463 1.2953514233231544e-03</internalNodes>
      <leafValues>
        -6.9412833452224731e-01 6.3816440105438232e-01</leafValues></_>
    <_>
      <internalNodes>
        0 -1 1037301 -5.2116256207227707e-02</internalNodes>
      <leafValues>
        4.9604359269142151e-01 -7.0688861608505249e-01</leafValues></_>
    <_>
      <internalNodes>
        0 -1 4568971 -1.1271326802670956e-03</internalNodes>
      <leafValues>
        -9.8447740077972412e-01 2.4227683246135712e-01</leafValues></_>
    <_>
      <internalNodes>
        0 -1 4561003 7.4615248013287783e-04</internalNodes>
      <leafValues>
        -8.5865056514739990e-01 2.8367489576339722e-01</leafValues></_></weakClassifiers></stage5>
</opencv_storage>
